digraph Tree {
node [shape=box, fontname="helvetica"] ;
edge [fontname="helvetica"] ;
0 [label="MedInc <= 5.589\nsquared_error = 1.334\nsamples = 13058\nvalue = 2.076"] ;
1 [label="MedInc <= 3.13\nsquared_error = 0.882\nsamples = 11153\nvalue = 1.808"] ;
0 -> 1 [labeldistance=2.5, labelangle=45, headlabel="True"] ;
2 [label="AveOccup <= 2.174\nsquared_error = 0.567\nsamples = 5146\nvalue = 1.375"] ;
1 -> 2 ;
3 [label="Latitude <= 37.975\nsquared_error = 1.048\nsamples = 797\nvalue = 1.906"] ;
2 -> 3 ;
4 [label="Longitude <= -118.245\nsquared_error = 1.12\nsamples = 618\nvalue = 2.102"] ;
3 -> 4 ;
5 [label="Latitude <= 34.63\nsquared_error = 1.264\nsamples = 349\nvalue = 2.461"] ;
4 -> 5 ;
6 [label="(...)"] ;
5 -> 6 ;
251 [label="(...)"] ;
5 -> 251 ;
674 [label="HouseAge <= 29.5\nsquared_error = 0.562\nsamples = 269\nvalue = 1.645"] ;
4 -> 674 ;
675 [label="(...)"] ;
674 -> 675 ;
1016 [label="(...)"] ;
674 -> 1016 ;
1197 [label="MedInc <= 1.94\nsquared_error = 0.221\nsamples = 179\nvalue = 1.236"] ;
3 -> 1197 ;
1198 [label="AveOccup <= 2.006\nsquared_error = 0.187\nsamples = 71\nvalue = 1.05"] ;
1197 -> 1198 ;
1199 [label="(...)"] ;
1198 -> 1199 ;
1282 [label="(...)"] ;
1198 -> 1282 ;
1337 [label="Longitude <= -122.255\nsquared_error = 0.201\nsamples = 108\nvalue = 1.374"] ;
1197 -> 1337 ;
1338 [label="(...)"] ;
1337 -> 1338 ;
1397 [label="(...)"] ;
1337 -> 1397 ;
1546 [label="Latitude <= 34.455\nsquared_error = 0.417\nsamples = 4349\nvalue = 1.277"] ;
2 -> 1546 ;
1547 [label="Longitude <= -117.765\nsquared_error = 0.384\nsamples = 2101\nvalue = 1.498"] ;
1546 -> 1547 ;
1548 [label="AveOccup <= 3.455\nsquared_error = 0.355\nsamples = 1425\nvalue = 1.684"] ;
1547 -> 1548 ;
1549 [label="(...)"] ;
1548 -> 1549 ;
2850 [label="(...)"] ;
1548 -> 2850 ;
4367 [label="AveBedrms <= 0.531\nsquared_error = 0.226\nsamples = 676\nvalue = 1.117"] ;
1547 -> 4367 ;
4368 [label="(...)"] ;
4367 -> 4368 ;
4369 [label="(...)"] ;
4367 -> 4369 ;
5696 [label="Longitude <= -121.695\nsquared_error = 0.358\nsamples = 2248\nvalue = 1.069"] ;
1546 -> 5696 ;
5697 [label="Latitude <= 37.905\nsquared_error = 0.546\nsamples = 811\nvalue = 1.349"] ;
5696 -> 5697 ;
5698 [label="(...)"] ;
5697 -> 5698 ;
6387 [label="(...)"] ;
5697 -> 6387 ;
7294 [label="Longitude <= -120.075\nsquared_error = 0.178\nsamples = 1437\nvalue = 0.907"] ;
5696 -> 7294 ;
7295 [label="(...)"] ;
7294 -> 7295 ;
8984 [label="(...)"] ;
7294 -> 8984 ;
10115 [label="AveOccup <= 2.418\nsquared_error = 0.853\nsamples = 6007\nvalue = 2.179"] ;
1 -> 10115 ;
10116 [label="HouseAge <= 19.5\nsquared_error = 1.296\nsamples = 1502\nvalue = 2.827"] ;
10115 -> 10116 ;
10117 [label="MedInc <= 4.912\nsquared_error = 0.629\nsamples = 413\nvalue = 2.131"] ;
10116 -> 10117 ;
10118 [label="Longitude <= -117.33\nsquared_error = 0.57\nsamples = 362\nvalue = 2.047"] ;
10117 -> 10118 ;
10119 [label="(...)"] ;
10118 -> 10119 ;
10694 [label="(...)"] ;
10118 -> 10694 ;
10827 [label="HouseAge <= 16.5\nsquared_error = 0.644\nsamples = 51\nvalue = 2.717"] ;
10117 -> 10827 ;
10828 [label="(...)"] ;
10827 -> 10828 ;
10899 [label="(...)"] ;
10827 -> 10899 ;
10928 [label="Latitude <= 37.935\nsquared_error = 1.298\nsamples = 1089\nvalue = 3.086"] ;
10116 -> 10928 ;
10929 [label="AveOccup <= 2.065\nsquared_error = 1.186\nsamples = 958\nvalue = 3.245"] ;
10928 -> 10929 ;
10930 [label="(...)"] ;
10929 -> 10930 ;
11577 [label="(...)"] ;
10929 -> 11577 ;
12718 [label="Longitude <= -122.365\nsquared_error = 0.646\nsamples = 131\nvalue = 1.962"] ;
10928 -> 12718 ;
12719 [label="(...)"] ;
12718 -> 12719 ;
12816 [label="(...)"] ;
12718 -> 12816 ;
12977 [label="MedInc <= 4.529\nsquared_error = 0.518\nsamples = 4505\nvalue = 1.962"] ;
10115 -> 12977 ;
12978 [label="HouseAge <= 45.5\nsquared_error = 0.445\nsamples = 3026\nvalue = 1.803"] ;
12977 -> 12978 ;
12979 [label="MedInc <= 3.836\nsquared_error = 0.382\nsamples = 2769\nvalue = 1.749"] ;
12978 -> 12979 ;
12980 [label="(...)"] ;
12979 -> 12980 ;
15971 [label="(...)"] ;
12979 -> 15971 ;
18476 [label="Longitude <= -122.405\nsquared_error = 0.751\nsamples = 257\nvalue = 2.395"] ;
12978 -> 18476 ;
18477 [label="(...)"] ;
18476 -> 18477 ;
18642 [label="(...)"] ;
18476 -> 18642 ;
18983 [label="AveOccup <= 2.975\nsquared_error = 0.51\nsamples = 1479\nvalue = 2.285"] ;
12977 -> 18983 ;
18984 [label="HouseAge <= 21.5\nsquared_error = 0.558\nsamples = 762\nvalue = 2.508"] ;
18983 -> 18984 ;
18985 [label="(...)"] ;
18984 -> 18985 ;
19458 [label="(...)"] ;
18984 -> 19458 ;
20499 [label="HouseAge <= 16.5\nsquared_error = 0.353\nsamples = 717\nvalue = 2.051"] ;
18983 -> 20499 ;
20500 [label="(...)"] ;
20499 -> 20500 ;
20989 [label="(...)"] ;
20499 -> 20989 ;
21922 [label="MedInc <= 7.789\nsquared_error = 1.107\nsamples = 1905\nvalue = 3.64"] ;
0 -> 21922 [labeldistance=2.5, labelangle=-45, headlabel="False"] ;
21923 [label="AveOccup <= 2.658\nsquared_error = 0.9\nsamples = 1409\nvalue = 3.298"] ;
21922 -> 21923 ;
21924 [label="HouseAge <= 21.5\nsquared_error = 0.91\nsamples = 465\nvalue = 3.86"] ;
21923 -> 21924 ;
21925 [label="Population <= 380.0\nsquared_error = 0.997\nsamples = 131\nvalue = 3.376"] ;
21924 -> 21925 ;
21926 [label="Latitude <= 34.79\nsquared_error = 0.872\nsamples = 8\nvalue = 2.1"] ;
21925 -> 21926 ;
21927 [label="(...)"] ;
21926 -> 21927 ;
21930 [label="(...)"] ;
21926 -> 21930 ;
21941 [label="AveBedrms <= 1.071\nsquared_error = 0.873\nsamples = 123\nvalue = 3.473"] ;
21925 -> 21941 ;
21942 [label="(...)"] ;
21941 -> 21942 ;
22069 [label="(...)"] ;
21941 -> 22069 ;
22164 [label="Latitude <= 34.145\nsquared_error = 0.717\nsamples = 334\nvalue = 4.078"] ;
21924 -> 22164 ;
22165 [label="AveOccup <= 2.361\nsquared_error = 0.491\nsamples = 155\nvalue = 4.432"] ;
22164 -> 22165 ;
22166 [label="(...)"] ;
22165 -> 22166 ;
22241 [label="(...)"] ;
22165 -> 22241 ;
22386 [label="AveBedrms <= 1.091\nsquared_error = 0.707\nsamples = 179\nvalue = 3.759"] ;
22164 -> 22386 ;
22387 [label="(...)"] ;
22386 -> 22387 ;
22682 [label="(...)"] ;
22386 -> 22682 ;
22711 [label="MedInc <= 6.472\nsquared_error = 0.667\nsamples = 944\nvalue = 3.025"] ;
21923 -> 22711 ;
22712 [label="HouseAge <= 32.5\nsquared_error = 0.543\nsamples = 542\nvalue = 2.749"] ;
22711 -> 22712 ;
22713 [label="HouseAge <= 12.5\nsquared_error = 0.433\nsamples = 444\nvalue = 2.643"] ;
22712 -> 22713 ;
22714 [label="(...)"] ;
22713 -> 22714 ;
22849 [label="(...)"] ;
22713 -> 22849 ;
23600 [label="AveOccup <= 3.331\nsquared_error = 0.758\nsamples = 98\nvalue = 3.226"] ;
22712 -> 23600 ;
23601 [label="(...)"] ;
23600 -> 23601 ;
23772 [label="(...)"] ;
23600 -> 23772 ;
23795 [label="HouseAge <= 25.5\nsquared_error = 0.596\nsamples = 402\nvalue = 3.394"] ;
22711 -> 23795 ;
23796 [label="MedInc <= 6.875\nsquared_error = 0.459\nsamples = 280\nvalue = 3.204"] ;
23795 -> 23796 ;
23797 [label="(...)"] ;
23796 -> 23797 ;
24046 [label="(...)"] ;
23796 -> 24046 ;
24345 [label="MedInc <= 6.886\nsquared_error = 0.628\nsamples = 122\nvalue = 3.856"] ;
23795 -> 24345 ;
24346 [label="(...)"] ;
24345 -> 24346 ;
24469 [label="(...)"] ;
24345 -> 24469 ;
24574 [label="MedInc <= 9.04\nsquared_error = 0.456\nsamples = 496\nvalue = 4.588"] ;
21922 -> 24574 ;
24575 [label="HouseAge <= 28.5\nsquared_error = 0.556\nsamples = 250\nvalue = 4.329"] ;
24574 -> 24575 ;
24576 [label="Longitude <= -121.72\nsquared_error = 0.591\nsamples = 147\nvalue = 4.031"] ;
24575 -> 24576 ;
24577 [label="Latitude <= 37.7\nsquared_error = 0.303\nsamples = 40\nvalue = 4.414"] ;
24576 -> 24577 ;
24578 [label="(...)"] ;
24577 -> 24578 ;
24617 [label="(...)"] ;
24577 -> 24617 ;
24642 [label="Latitude <= 34.925\nsquared_error = 0.623\nsamples = 107\nvalue = 3.874"] ;
24576 -> 24642 ;
24643 [label="(...)"] ;
24642 -> 24643 ;
24820 [label="(...)"] ;
24642 -> 24820 ;
24839 [label="AveBedrms <= 1.033\nsquared_error = 0.176\nsamples = 103\nvalue = 4.773"] ;
24575 -> 24839 ;
24840 [label="Longitude <= -117.915\nsquared_error = 0.26\nsamples = 54\nvalue = 4.607"] ;
24839 -> 24840 ;
24841 [label="(...)"] ;
24840 -> 24841 ;
24908 [label="(...)"] ;
24840 -> 24908 ;
24911 [label="AveRooms <= 8.628\nsquared_error = 0.036\nsamples = 49\nvalue = 4.94"] ;
24839 -> 24911 ;
24912 [label="(...)"] ;
24911 -> 24912 ;
24929 [label="(...)"] ;
24911 -> 24929 ;
24930 [label="Population <= 56.5\nsquared_error = 0.214\nsamples = 246\nvalue = 4.854"] ;
24574 -> 24930 ;
24931 [label="Longitude <= -121.775\nsquared_error = 1.18\nsamples = 5\nvalue = 2.197"] ;
24930 -> 24931 ;
24932 [label="Population <= 33.5\nsquared_error = 0.315\nsamples = 2\nvalue = 3.207"] ;
24931 -> 24932 ;
24933 [label="(...)"] ;
24932 -> 24933 ;
24934 [label="(...)"] ;
24932 -> 24934 ;
24935 [label="Longitude <= -119.905\nsquared_error = 0.008\nsamples = 3\nvalue = 1.188"] ;
24931 -> 24935 ;
24936 [label="(...)"] ;
24935 -> 24936 ;
24937 [label="(...)"] ;
24935 -> 24937 ;
24938 [label="AveRooms <= 6.442\nsquared_error = 0.089\nsamples = 241\nvalue = 4.895"] ;
24930 -> 24938 ;
24939 [label="AveOccup <= 2.662\nsquared_error = 0.4\nsamples = 16\nvalue = 4.379"] ;
24938 -> 24939 ;
24940 [label="(...)"] ;
24939 -> 24940 ;
24949 [label="(...)"] ;
24939 -> 24949 ;
24960 [label="HouseAge <= 13.5\nsquared_error = 0.05\nsamples = 225\nvalue = 4.929"] ;
24938 -> 24960 ;
24961 [label="(...)"] ;
24960 -> 24961 ;
24998 [label="(...)"] ;
24960 -> 24998 ;
}